digraph Tree {
node [shape=box, style="filled", color="black", fontname="helvetica"] ;
edge [fontname="helvetica"] ;
0 [label="Income <= 1100.0\ngini = 0.805\nsamples = 20\nvalue = [2, 6, 2, 3, 4, 3]\nclass = car", fillcolor="#f3fce6"] ;
1 [label="Age <= 12.0\ngini = 0.642\nsamples = 9\nvalue = [2, 0, 0, 3, 4, 0]\nclass = scooter", fillcolor="#eadefb"] ;
0 -> 1 [labeldistance=2.5, labelangle=45, headlabel="True"] ;
2 [label="Gender <= 0.5\ngini = 0.444\nsamples = 3\nvalue = [2, 0, 0, 0, 1, 0]\nclass = bicycle", fillcolor="#f2c09c"] ;
1 -> 2 ;
3 [label="gini = 0.0\nsamples = 2\nvalue = [2, 0, 0, 0, 0, 0]\nclass = bicycle", fillcolor="#e58139"] ;
2 -> 3 ;
4 [label="gini = 0.0\nsamples = 1\nvalue = [0, 0, 0, 0, 1, 0]\nclass = scooter", fillcolor="#8139e5"] ;
2 -> 4 ;
5 [label="Age <= 19.0\ngini = 0.5\nsamples = 6\nvalue = [0, 0, 0, 3, 3, 0]\nclass = metro", fillcolor="#ffffff"] ;
1 -> 5 ;
6 [label="gini = 0.0\nsamples = 2\nvalue = [0, 0, 0, 2, 0, 0]\nclass = metro", fillcolor="#399de5"] ;
5 -> 6 ;
7 [label="Income <= 650.0\ngini = 0.375\nsamples = 4\nvalue = [0, 0, 0, 1, 3, 0]\nclass = scooter", fillcolor="#ab7bee"] ;
5 -> 7 ;
8 [label="gini = 0.0\nsamples = 3\nvalue = [0, 0, 0, 0, 3, 0]\nclass = scooter", fillcolor="#8139e5"] ;
7 -> 8 ;
9 [label="gini = 0.0\nsamples = 1\nvalue = [0, 0, 0, 1, 0, 0]\nclass = metro", fillcolor="#399de5"] ;
7 -> 9 ;
10 [label="Age <= 70.5\ngini = 0.595\nsamples = 11\nvalue = [0, 6, 2, 0, 0, 3]\nclass = car", fillcolor="#daf5b5"] ;
0 -> 10 [labeldistance=2.5, labelangle=-45, headlabel="False"] ;
11 [label="Income <= 3500.0\ngini = 0.444\nsamples = 9\nvalue = [0, 6, 0, 0, 0, 3]\nclass = car", fillcolor="#cef29c"] ;
10 -> 11 ;
12 [label="Age <= 36.0\ngini = 0.375\nsamples = 4\nvalue = [0, 1, 0, 0, 0, 3]\nclass = taxi", fillcolor="#ee7bbe"] ;
11 -> 12 ;
13 [label="gini = 0.0\nsamples = 1\nvalue = [0, 1, 0, 0, 0, 0]\nclass = car", fillcolor="#9de539"] ;
12 -> 13 ;
14 [label="gini = 0.0\nsamples = 3\nvalue = [0, 0, 0, 0, 0, 3]\nclass = taxi", fillcolor="#e5399d"] ;
12 -> 14 ;
15 [label="gini = 0.0\nsamples = 5\nvalue = [0, 5, 0, 0, 0, 0]\nclass = car", fillcolor="#9de539"] ;
11 -> 15 ;
16 [label="gini = 0.0\nsamples = 2\nvalue = [0, 0, 2, 0, 0, 0]\nclass = helicopter", fillcolor="#39e581"] ;
10 -> 16 ;
}